{
  "feature_order": [
    "mean_speed",
    "speed_variance",
    "pause_ratio",
    "direction_changes",
    "progress_delta",
    "backtrack_ratio",
    "mean_workspace_distance"
  ],
  "selected_feature_order": [
    "mean_speed",
    "speed_variance",
    "pause_ratio",
    "direction_changes",
    "progress_delta",
    "backtrack_ratio",
    "mean_workspace_distance"
  ],
  "feature_indices": null,
  "scaler": {
    "means": [
      0.06038724666483682,
      0.000622843676768125,
      0.19072802197802197,
      2.9582417582417584,
      0.0042057450841301944,
      0.42747252747252745,
      0.8481624045931048
    ],
    "stds": [
      0.009462998836325167,
      0.00022271817182581755,
      0.1422139704480292,
      1.2689933653621568,
      0.01151313970087151,
      0.19962659433632277,
      0.6851456994815514
    ]
  },
  "state": {
    "classes": [
      "correction_rework",
      "mild_hesitation",
      "normal_progress",
      "overlap_risk",
      "ready_for_robot_action",
      "strong_hesitation"
    ],
    "weights": {
      "correction_rework": [
        -0.9269212901556494,
        0.24947890970510223,
        -0.583398792206781,
        0.22176234521293375,
        -0.03224440423043073,
        -0.3043402080415604,
        -0.1716410384073026
      ],
      "mild_hesitation": [
        -0.5130223004369784,
        -0.24837884001368882,
        -0.29216519137611097,
        -0.07811876543144856,
        -0.27100363057699906,
        0.37831718984190355,
        0.0435584313003508
      ],
      "normal_progress": [
        0.5262076300061727,
        0.3305349673842599,
        0.190052643461324,
        -0.0763558064193105,
        0.28487184751477157,
        0.17267937618209492,
        0.13708003127804316
      ],
      "overlap_risk": [
        0.6777721169485847,
        -0.20285284728002126,
        0.01944508493247119,
        -0.00724326685557204,
        -0.05173728229502363,
        0.036173675864658646,
        0.03034916379434434
      ],
      "ready_for_robot_action": [
        0.7706718463658097,
        -0.09823418714286197,
        0.2890779327702151,
        -0.08369971879442084,
        0.017375243484840326,
        -0.15422485037208306,
        -0.2801433172671936
      ],
      "strong_hesitation": [
        -0.41907140723979647,
        0.2873555419749245,
        0.30161539532704135,
        0.04440957983868199,
        0.07973786833111843,
        0.052432563634336245,
        0.2652042791259842
      ]
    },
    "biases": {
      "correction_rework": -1.1122662782977848,
      "mild_hesitation": -1.2885256836841406,
      "normal_progress": -2.107993648500584,
      "overlap_risk": -1.6600044133007306,
      "ready_for_robot_action": -2.407229909069979,
      "strong_hesitation": -2.2227692677576676
    }
  },
  "future_hesitation": {
    "weights": [
      0.3978192908541799,
      0.23145041302152436,
      0.20396856219657603,
      0.002031974478574192,
      -0.15521763854928894,
      0.12999609333658907,
      0.041539017162377644
    ],
    "bias": 1.9079177795186457
  },
  "future_correction": {
    "weights": [
      -0.005359123080018048,
      0.03365706813763765,
      0.6197278217301817,
      -0.05311012771736799,
      0.6444155029020546,
      -0.3883442155114746,
      -0.30562097257247334
    ],
    "bias": 1.4673790662517288
  },
  "window_size": 8,
  "pause_speed_threshold": 0.03,
  "horizon_frames": 5
}