{
  "feature_order": [
    "mean_speed",
    "speed_variance",
    "pause_ratio",
    "direction_changes",
    "progress_delta",
    "backtrack_ratio",
    "mean_workspace_distance"
  ],
  "selected_feature_order": [
    "mean_speed",
    "speed_variance",
    "pause_ratio",
    "direction_changes",
    "progress_delta",
    "backtrack_ratio",
    "mean_workspace_distance"
  ],
  "feature_indices": null,
  "scaler": {
    "means": [
      0.05928624294002383,
      0.0006073082244459469,
      0.21161522086216072,
      2.8893028206492817,
      0.011114654790170956,
      0.41572264882536303,
      0.862295345402451
    ],
    "stds": [
      0.011470467780698868,
      0.00023857466473430593,
      0.18838636202456688,
      1.3274389597872953,
      0.042972668743016716,
      0.20853298110698115,
      0.6822073201106678
    ]
  },
  "state": {
    "classes": [
      "correction_rework",
      "mild_hesitation",
      "normal_progress",
      "overlap_risk",
      "ready_for_robot_action",
      "strong_hesitation"
    ],
    "weights": {
      "correction_rework": [
        -1.0491123901903348,
        0.2695230082863343,
        -0.8083811039561417,
        0.1658574869173293,
        -0.4597794081573269,
        -0.40399616264283655,
        -0.05532329637092877
      ],
      "mild_hesitation": [
        -0.5923680971378154,
        -0.2481619026071837,
        -0.39814344612440117,
        -0.05180845636975524,
        -0.5013117329639187,
        0.33153102907310755,
        0.07119425109997311
      ],
      "normal_progress": [
        0.6749598592227126,
        0.3380681766132228,
        0.23952652473174305,
        -0.10236415184977288,
        0.9806366545290268,
        0.19554295747161585,
        0.10041260836512254
      ],
      "overlap_risk": [
        0.7708287062715281,
        -0.17908088992555643,
        0.030232112080565622,
        0.025843114957797276,
        -0.11726440223511148,
        0.10255483431883924,
        -0.02584948676081717
      ],
      "ready_for_robot_action": [
        0.8554639328104251,
        -0.07983362248440914,
        0.4071793022225948,
        -0.10068533816428944,
        -0.33357847475289004,
        -0.13029331814010345,
        -0.2598167553402031
      ],
      "strong_hesitation": [
        -0.5267662828290487,
        0.2998705911447444,
        0.45544330923082793,
        0.08671292174558064,
        -0.3070409272568226,
        -0.1469444917189024,
        0.20670448588450094
      ]
    },
    "biases": {
      "correction_rework": -1.1656101408527038,
      "mild_hesitation": -1.3158553376627273,
      "normal_progress": -2.028789710396571,
      "overlap_risk": -1.743929682347035,
      "ready_for_robot_action": -2.450358716755397,
      "strong_hesitation": -2.163647406809358
    }
  },
  "future_hesitation": {
    "weights": [
      0.3103804747659974,
      0.08590222179419339,
      0.06063582698334365,
      -0.08020790134206353,
      -0.3545273794320179,
      0.10434790493191401,
      0.23751518610707875
    ],
    "bias": 0.76244646250572
  },
  "future_correction": {
    "weights": [
      0.16141342265481828,
      0.0023947458356073596,
      0.45621255399478183,
      -0.1556574706237456,
      -0.3663241194508762,
      -0.6301994157067755,
      -0.08750591243764341
    ],
    "bias": 0.5905767353004431
  },
  "window_size": 8,
  "pause_speed_threshold": 0.03,
  "horizon_frames": 3
}