{
  "feature_order": [
    "mean_speed",
    "speed_variance",
    "pause_ratio",
    "direction_changes",
    "progress_delta",
    "backtrack_ratio",
    "mean_workspace_distance"
  ],
  "selected_feature_order": [
    "mean_speed",
    "speed_variance",
    "pause_ratio",
    "direction_changes",
    "progress_delta",
    "backtrack_ratio",
    "mean_workspace_distance"
  ],
  "feature_indices": null,
  "scaler": {
    "means": [
      0.059398661932907756,
      0.0006089473261814566,
      0.20924932975871313,
      2.8997319034852547,
      0.010359851324280762,
      0.4171581769436997,
      0.8568619712383113
    ],
    "stds": [
      0.01128513064447601,
      0.00023718527845681132,
      0.18383456407855656,
      1.32054295965149,
      0.040756686204548365,
      0.20782672091708143,
      0.6793557097468771
    ]
  },
  "state": {
    "classes": [
      "correction_rework",
      "mild_hesitation",
      "normal_progress",
      "overlap_risk",
      "ready_for_robot_action",
      "strong_hesitation"
    ],
    "weights": {
      "correction_rework": [
        -1.0219963502391218,
        0.2757999501335656,
        -0.7985552366688936,
        0.1821202432161324,
        -0.39777986279395083,
        -0.39589866370587445,
        -0.11874884435968266
      ],
      "mild_hesitation": [
        -0.5883291888700114,
        -0.23993731924191794,
        -0.41924607724754503,
        -0.04550645112316307,
        -0.42592070322254055,
        0.3467304591456263,
        -0.002677790220900065
      ],
      "normal_progress": [
        0.6517339318758201,
        0.3273257351353819,
        0.25080309910197923,
        -0.10528596160400627,
        0.8519059820100348,
        0.1707960553166043,
        0.14981731060453196
      ],
      "overlap_risk": [
        0.7549452164469389,
        -0.190869255655029,
        0.04576049076297644,
        0.017049773307913393,
        -0.12595039320966342,
        0.09827782005421686,
        0.017239840033621362
      ],
      "ready_for_robot_action": [
        0.8434237914167846,
        -0.07737500899421533,
        0.39087752694569444,
        -0.10243697120847711,
        -0.2843351187594007,
        -0.1259413893581186,
        -0.26018530831101455
      ],
      "strong_hesitation": [
        -0.5170638049056692,
        0.2863011247761264,
        0.4522896566399244,
        0.07475517893577302,
        -0.27556131396104866,
        -0.14070807405353364,
        0.2631834601039499
      ]
    },
    "biases": {
      "correction_rework": -1.1670558139244709,
      "mild_hesitation": -1.3094849551182552,
      "normal_progress": -2.04345444234596,
      "overlap_risk": -1.7324581597650786,
      "ready_for_robot_action": -2.4427894264251235,
      "strong_hesitation": -2.1499155744574034
    }
  },
  "future_hesitation": {
    "weights": [
      0.3731673771041857,
      0.25446138376755506,
      0.25321672005717016,
      0.04038977177477741,
      -0.4736443163019883,
      0.02028156747337808,
      -0.012342611962833226
    ],
    "bias": 1.8182310793399081
  },
  "future_correction": {
    "weights": [
      0.024500567426929562,
      -0.03217808670867883,
      0.5129942342393653,
      -0.053811491610582796,
      -0.12576992384104563,
      -0.6567844957795633,
      -0.2252099993707881
    ],
    "bias": 1.423711683084487
  },
  "window_size": 8,
  "pause_speed_threshold": 0.03,
  "horizon_frames": 5
}